digraph Tree {
node [shape=box] ;
0 [label="marital_status_Single <= 0.5\nentropy = 0.806\nsamples = 9412\nvalue = [7093, 2319]\nclass = No"] ;
1 [label="education <= 11.5\nentropy = 0.983\nsamples = 4737\nvalue = [2730, 2007]\nclass = No"] ;
0 -> 1 [labeldistance=2.5, labelangle=45, headlabel="True"] ;
2 [label="education <= 8.5\nentropy = 0.887\nsamples = 3222\nvalue = [2241, 981]\nclass = No"] ;
1 -> 2 ;
3 [label="hours_per_week <= 39.5\nentropy = 0.491\nsamples = 551\nvalue = [492, 59]\nclass = No"] ;
2 -> 3 ;
4 [label="entropy = 0.178\nsamples = 112\nvalue = [109, 3]\nclass = No"] ;
3 -> 4 ;
5 [label="entropy = 0.551\nsamples = 439\nvalue = [383, 56]\nclass = No"] ;
3 -> 5 ;
6 [label="age <= 29.5\nentropy = 0.93\nsamples = 2671\nvalue = [1749, 922]\nclass = No"] ;
2 -> 6 ;
7 [label="entropy = 0.59\nsamples = 345\nvalue = [296, 49]\nclass = No"] ;
6 -> 7 ;
8 [label="entropy = 0.955\nsamples = 2326\nvalue = [1453, 873]\nclass = No"] ;
6 -> 8 ;
9 [label="hours_per_week <= 41.5\nentropy = 0.907\nsamples = 1515\nvalue = [489, 1026]\nclass = Yes"] ;
1 -> 9 ;
10 [label="age <= 28.5\nentropy = 0.974\nsamples = 794\nvalue = [322, 472]\nclass = Yes"] ;
9 -> 10 ;
11 [label="entropy = 0.784\nsamples = 60\nvalue = [46, 14]\nclass = No"] ;
10 -> 11 ;
12 [label="entropy = 0.955\nsamples = 734\nvalue = [276, 458]\nclass = Yes"] ;
10 -> 12 ;
13 [label="age <= 33.5\nentropy = 0.781\nsamples = 721\nvalue = [167, 554]\nclass = Yes"] ;
9 -> 13 ;
14 [label="entropy = 0.958\nsamples = 137\nvalue = [52, 85]\nclass = Yes"] ;
13 -> 14 ;
15 [label="entropy = 0.716\nsamples = 584\nvalue = [115, 469]\nclass = Yes"] ;
13 -> 15 ;
16 [label="education <= 12.5\nentropy = 0.354\nsamples = 4675\nvalue = [4363, 312]\nclass = No"] ;
0 -> 16 [labeldistance=2.5, labelangle=-45, headlabel="False"] ;
17 [label="age <= 31.5\nentropy = 0.189\nsamples = 3675\nvalue = [3569, 106]\nclass = No"] ;
16 -> 17 ;
18 [label="hours_per_week <= 40.5\nentropy = 0.067\nsamples = 1994\nvalue = [1978, 16]\nclass = No"] ;
17 -> 18 ;
19 [label="entropy = 0.039\nsamples = 1675\nvalue = [1668, 7]\nclass = No"] ;
18 -> 19 ;
20 [label="entropy = 0.185\nsamples = 319\nvalue = [310, 9]\nclass = No"] ;
18 -> 20 ;
21 [label="hours_per_week <= 42.5\nentropy = 0.301\nsamples = 1681\nvalue = [1591, 90]\nclass = No"] ;
17 -> 21 ;
22 [label="entropy = 0.227\nsamples = 1279\nvalue = [1232, 47]\nclass = No"] ;
21 -> 22 ;
23 [label="entropy = 0.491\nsamples = 402\nvalue = [359, 43]\nclass = No"] ;
21 -> 23 ;
24 [label="age <= 29.5\nentropy = 0.734\nsamples = 1000\nvalue = [794, 206]\nclass = No"] ;
16 -> 24 ;
25 [label="hours_per_week <= 39.5\nentropy = 0.228\nsamples = 352\nvalue = [339, 13]\nclass = No"] ;
24 -> 25 ;
26 [label="entropy = 0.0\nsamples = 87\nvalue = [87, 0]\nclass = No"] ;
25 -> 26 ;
27 [label="entropy = 0.282\nsamples = 265\nvalue = [252, 13]\nclass = No"] ;
25 -> 27 ;
28 [label="education <= 14.5\nentropy = 0.879\nsamples = 648\nvalue = [455, 193]\nclass = No"] ;
24 -> 28 ;
29 [label="entropy = 0.821\nsamples = 582\nvalue = [433, 149]\nclass = No"] ;
28 -> 29 ;
30 [label="entropy = 0.918\nsamples = 66\nvalue = [22, 44]\nclass = Yes"] ;
28 -> 30 ;
}